neuron_index,w0,w1,w2,w3,w4,w5,w6,w7,w8,w9,w10,w11,w12,w13,w14,w15,w16,w17,w18,w19,w20,w21,w22,w23,w24,w25,w26,w27,w28,w29,w30,w31,w32,w33,w34,w35,w36,w37,w38,w39,w40,w41,w42,w43,w44,w45,w46,w47,w48,w49,w50,w51,w52,w53,w54,w55,w56,w57,w58,w59,w60,w61,w62,w63,w64,w65,w66,w67,w68,w69,w70,w71,w72,w73,w74,w75,w76,w77,w78,w79,w80,w81,w82,w83,w84,w85,w86,w87,w88,w89,w90,w91,w92,w93,w94,w95,w96,w97,w98,w99,w100,w101,w102,w103,w104,w105,w106,w107,w108,w109,w110,w111,w112,w113,w114,w115,w116,w117,w118,w119,w120,w121,w122,w123,w124,w125,w126,w127,w128,w129,w130,w131,w132,w133,w134,w135,w136,w137,w138,w139,w140,w141,w142,w143,w144,w145,w146,w147,w148,w149,w150,w151,w152,w153,w154,w155,w156,w157,w158,w159,w160,w161,w162,w163,w164,w165,w166,w167,w168,w169,w170,w171,w172,w173,w174,w175,w176,w177,w178,w179,w180,w181,w182,w183,w184,w185,w186,w187,w188,w189,w190,w191,w192,w193,w194,w195,w196,w197,w198,w199,w200,w201,w202,w203,w204,w205,w206,w207,w208,w209,w210,w211,w212,w213,w214,w215,w216,w217,w218,w219,w220,w221,w222,w223,w224,w225,w226,w227,w228,w229,w230,w231,w232,w233,w234,w235,w236,w237,w238,w239,w240,w241,w242,w243,w244,w245,w246,w247,w248,w249,w250,w251,w252,w253,w254,w255,w256,w257,w258,w259,w260,w261,w262,w263,w264,w265,w266,w267,w268,w269,w270,w271,w272,w273,w274,w275,w276,w277,w278,w279,w280,w281,w282,w283,w284,w285,w286,w287,w288,w289,w290,w291,w292,w293,w294,w295,w296,w297,w298,w299,w300,w301,w302,w303,w304,w305,w306,w307,w308,w309,w310,w311,w312,w313,w314,w315,w316,w317,w318,w319,w320,w321,w322,w323,w324,w325,w326,w327,w328,w329,w330,w331,w332,w333,w334,w335,w336,w337,w338,w339,w340,w341,w342,w343,w344,w345,w346,w347,w348,w349,w350,w351,w352,w353,w354,w355,w356,w357,w358,w359,w360,w361,w362,w363,w364,w365,w366,w367,w368,w369,w370,w371,w372,w373,w374,w375,w376,w377,w378,w379,w380,w381,w382,w383,w384,w385,w386,w387,w388,w389,w390,w391,w392,w393,w394,w395,w396,w397,w398,w399,w400,w401,w402,w403,w404,w405,w406,w407,w408,w409,w410,w411,w412,w413,w414,w415,w416,w417,w418,w419,w420,w421,w422,w423,w424,w425,w426,w427,w428,w429,w430,w431,w432,w433,w434,w435,w436,w437,w438,w439,w440,w441,w442,w443,w444,w445,w446,w447,w448,w449,w450,w451,w452,w453,w454,w455,w456,w457,w458,w459,w460,w461,w462,w463,w464,w465,w466,w467,w468,w469,w470,w471,w472,w473,w474,w475,w476,w477,w478,w479,w480,w481,w482,w483,w484,w485,w486,w487,w488,w489,w490,w491,w492,w493,w494,w495,w496,w497,w498,w499,w500,w501,w502,w503,w504,w505,w506,w507,w508,w509,w510,w511,w512,w513,w514,w515,w516,w517,w518,w519,w520,w521,w522,w523,w524,w525,w526,w527,w528,w529,w530,w531,w532,w533,w534,w535,w536,w537,w538,w539,w540,w541,w542,w543,w544,w545,w546,w547,w548,w549,w550,w551,w552,w553,w554,w555,w556,w557,w558,w559,w560,w561,w562,w563,w564,w565,w566,w567,w568,w569,w570,w571,w572,w573,w574,w575,w576,w577,w578,w579,w580,w581,w582,w583,w584,w585,w586,w587,w588,w589,w590,w591,w592,w593,w594,w595,w596,w597,w598,w599,w600,w601,w602,w603,w604,w605,w606,w607,w608,w609,w610,w611,w612,w613,w614,w615,w616,w617,w618,w619,w620,w621,w622,w623,w624,w625,w626,w627,w628,w629,w630,w631,w632,w633,w634,w635,w636,w637,w638,w639,w640,w641,w642,w643,w644,w645,w646,w647,w648,w649,w650,w651,w652,w653,w654,w655,w656,w657,w658,w659,w660,w661,w662,w663,w664,w665,w666,w667,w668,w669,w670,w671,w672,w673,w674,w675,w676,w677,w678,w679,w680,w681,w682,w683,w684,w685,w686,w687,w688,w689,w690,w691,w692,w693,w694,w695,w696,w697,w698,w699,w700,w701,w702,w703,w704,w705,w706,w707,w708,w709,w710,w711,w712,w713,w714,w715,w716,w717,w718,w719,w720,w721,w722,w723,w724,w725,w726,w727,w728,w729,w730,w731,w732,w733,w734,w735,w736,w737,w738,w739,w740,w741,w742,w743,w744,w745,w746,w747,w748,w749,w750,w751,w752,w753,w754,w755,w756,w757,w758,w759,w760,w761,w762,w763,w764,w765,w766,w767,w768,w769,w770,w771,w772,w773,w774,w775,w776,w777,w778,w779,w780,w781,w782,w783,bias
104,0.041286952793598175,-0.012045592069625854,0.013347826898097992,0.02722673863172531,0.06466063112020493,0.06301721185445786,0.03450498729944229,0.03780176863074303,-0.06292477250099182,-0.05704982206225395,-0.07723255455493927,0.005939364433288574,-0.011937420815229416,-0.09960201382637024,0.03206818923354149,0.02487766742706299,-0.03578678146004677,0.0341368243098259,-0.04514112323522568,0.02146746963262558,-0.016898445785045624,0.02920626848936081,0.013635359704494476,0.0022384971380233765,0.06541468948125839,-0.06657619029283524,-0.05232393741607666,0.03209800273180008,-0.04613039270043373,-0.050400130450725555,0.0522969514131546,0.012444019317626953,0.0172168780118227,-0.0811363086104393,-0.07755764573812485,-0.10389507561922073,-0.1844831258058548,-0.14092394709587097,-0.2533900737762451,-0.23882576823234558,-0.2739852964878082,-0.17105703055858612,-0.1978171169757843,-0.08299189805984497,0.011866149492561817,-0.12285427004098892,-0.21848566830158234,-0.10783648490905762,-0.07279807329177856,-0.0496780164539814,-0.1099390983581543,-0.058416351675987244,-0.05402320623397827,0.02177949994802475,0.003251791000366211,0.0590415820479393,-0.03067668527364731,0.012412473559379578,-0.0355338379740715,0.07383240759372711,-0.07488258183002472,0.006209156941622496,-0.10853938013315201,-0.1856192648410797,-0.35262593626976013,-0.382965087890625,-0.40460795164108276,-0.40559083223342896,-0.45633524656295776,-0.44257137179374695,-0.4552876353263855,-0.37258434295654297,-0.32667309045791626,-0.3584853410720825,-0.5188921689987183,-0.41717490553855896,-0.3646291494369507,-0.43410372734069824,-0.39983487129211426,-0.3100159466266632,-0.2535650134086609,0.0012952417600899935,0.015232674777507782,0.040702562779188156,-0.036287788301706314,0.0044386908411979675,0.007819638587534428,-0.07720877975225449,-0.006857655476778746,-0.031133471056818962,-0.09961201995611191,-0.16262513399124146,-0.28447237610816956,-0.22677864134311676,-0.2194022238254547,-0.2808170020580292,-0.10369369387626648,-0.23829953372478485,-0.15991663932800293,-0.1181279644370079,-0.19386130571365356,-0.32208988070487976,-0.4119356870651245,-0.5925670862197876,-0.5982610583305359,-0.5897035002708435,-0.5694195628166199,-0.43848729133605957,-0.2765953838825226,-0.23012949526309967,-0.05850125849246979,-0.04732202738523483,-0.009126534685492516,-0.000489654834382236,0.08671019226312637,0.06822731345891953,0.004983818158507347,0.046483270823955536,0.0810527577996254,-0.022130900993943214,0.06756960600614548,0.15029451251029968,0.0478806346654892,0.23121261596679688,0.28273236751556396,0.14653249084949493,0.1731460690498352,0.14048391580581665,-0.05361652746796608,-0.1837637722492218,-0.2707086503505707,-0.36262246966362,-0.5537642240524292,-0.48495832085609436,-0.37890180945396423,-0.22757603228092194,-0.08357255905866623,0.003418652806431055,0.1059938371181488,-0.015725618228316307,0.04255063086748123,0.03426573425531387,0.11456912010908127,0.11823870241641998,0.1025017574429512,0.23054128885269165,0.28100404143333435,0.1798558384180069,0.15840911865234375,0.26941031217575073,0.24161168932914734,0.3485579788684845,0.22819767892360687,0.23975922167301178,0.16477344930171967,0.11747709661722183,0.0683506578207016,-0.06017700582742691,-0.19196255505084991,-0.2423495501279831,-0.26984110474586487,-0.11752237379550934,-0.030622022226452827,0.03189678490161896,0.07243147492408752,0.0815398097038269,0.14725495874881744,-0.043010249733924866,0.022823557257652283,0.05214165896177292,0.08167995512485504,0.2624261975288391,0.19330981373786926,0.2325071096420288,0.1682693064212799,0.07108162343502045,0.10372556000947952,0.13704895973205566,0.12910576164722443,0.20139887928962708,0.15146903693675995,0.14018361270427704,0.24109423160552979,0.19014593958854675,0.18583840131759644,0.10486581921577454,0.10987300425767899,0.009076927788555622,0.07287602126598358,0.19431152939796448,0.20333875715732574,0.3838449716567993,0.35845640301704407,0.38403525948524475,0.19688822329044342,-0.017175165936350822,0.06132563576102257,-0.016908714547753334,0.06882323324680328,0.13839828968048096,0.2669234573841095,0.19835050404071808,0.1959073394536972,0.11541620641946793,0.04254945367574692,0.03904423117637634,0.1720583587884903,0.07907821238040924,0.09361004084348679,0.2155473232269287,0.25151610374450684,0.32993006706237793,0.2903585135936737,0.3029063642024994,0.4146273136138916,0.46071910858154297,0.5092876553535461,0.4017431139945984,0.5138316750526428,0.3724619448184967,0.3665339946746826,0.3196411728858948,0.1442878246307373,-0.037951353937387466,0.040838513523340225,0.07499463111162186,0.05613648518919945,0.17118355631828308,0.2102106511592865,0.20082268118858337,0.2194071114063263,0.06800400465726852,-0.03892087563872337,0.05514250323176384,0.07375703752040863,0.11928555369377136,0.11815190315246582,0.1868196427822113,0.2969498336315155,0.319749653339386,0.33442866802215576,0.5109891295433044,0.6562951803207397,0.5462844967842102,0.627697229385376,0.6046990156173706,0.44717586040496826,0.29613304138183594,0.2778593599796295,0.2419649213552475,0.0687996968626976,-0.09692873060703278,0.00790923647582531,0.06394147872924805,-0.00967803318053484,0.20583462715148926,0.33700031042099,0.22443199157714844,0.04661558195948601,-0.0445898100733757,-0.07797890901565552,-0.02920774184167385,-0.09250076860189438,0.038509394973516464,-0.0205288864672184,0.139949768781662,0.21535970270633698,0.3988548219203949,0.5371933579444885,0.5740712285041809,0.6984245777130127,0.6135814785957336,0.5263469815254211,0.3586803674697876,0.189963698387146,0.04067108407616615,0.043472666293382645,0.15947064757347107,0.129829540848732,0.03960778936743736,-0.08072391897439957,-0.025663111358880997,-0.10419189184904099,0.07443632185459137,0.2531890273094177,0.16355100274085999,-0.017652595415711403,-0.21041670441627502,-0.14622220396995544,-0.11311817169189453,-0.14212484657764435,-0.16477103531360626,-0.12896206974983215,-0.10621488094329834,0.14723704755306244,0.46279022097587585,0.5882318019866943,0.5409371256828308,0.3977188467979431,0.3536621034145355,0.15279266238212585,0.003545409068465233,-0.14407648146152496,-0.14729318022727966,-0.18743358552455902,0.1332443803548813,0.15451717376708984,-0.018459927290678024,-0.02835971489548683,-0.0529717281460762,-0.06468992680311203,0.13996325433254242,0.0792393609881401,0.035341110080480576,-0.09773692488670349,-0.18983545899391174,-0.15178456902503967,-0.20218464732170105,-0.1475897878408432,-0.19545337557792664,-0.33368557691574097,-0.17378409206867218,0.22263388335704803,0.4893646836280823,0.40176063776016235,0.2424762099981308,0.1670188456773758,0.006955428514629602,-0.015852130949497223,-0.23397140204906464,-0.27334222197532654,-0.4809004068374634,-0.41678038239479065,-0.18116064369678497,-0.0410049706697464,-0.08262133598327637,0.08076076209545135,-0.12109357863664627,-0.07072010636329651,-0.05139787867665291,0.054173052310943604,-0.025401143357157707,-0.23890161514282227,-0.19648291170597076,-0.11012736707925797,-0.12560030817985535,-0.14342664182186127,-0.2169208526611328,-0.3993660807609558,-0.20721304416656494,0.2565135359764099,0.39625948667526245,0.11050118505954742,-0.061703871935606,-0.037639837712049484,-0.06675785034894943,-0.12498503923416138,-0.27529868483543396,-0.42565345764160156,-0.47167539596557617,-0.44608017802238464,-0.26040250062942505,0.11598581075668335,0.04832703620195389,0.04437078535556793,0.011088990606367588,-0.030919969081878662,0.11145377904176712,0.1296118050813675,-0.029152821749448776,-0.10321536660194397,-0.11148803681135178,-0.036954838782548904,-0.05465986952185631,-0.17478236556053162,-0.3410113751888275,-0.38184091448783875,-0.08692998439073563,0.08890566974878311,0.024159209802746773,-0.12097889930009842,-0.08494190126657486,0.05778389051556587,0.01011651661247015,-0.18502627313137054,-0.2875165045261383,-0.3692767918109894,-0.5345064401626587,-0.35767269134521484,-0.04079307243227959,0.2435927838087082,0.0761311873793602,0.08793673664331436,0.08624404668807983,0.03755296394228935,0.16909895837306976,0.3164227306842804,0.0849856287240982,-0.08263181895017624,-0.08761059492826462,-0.016263671219348907,-0.0514705516397953,-0.12433923780918121,-0.32240939140319824,-0.17460256814956665,0.023090550675988197,-0.07779312133789062,-0.1597898155450821,-0.07199673354625702,-0.007646535988897085,0.08090703189373016,-0.030107034370303154,-0.14455905556678772,-0.2264462113380432,-0.22524796426296234,-0.37024345993995667,-0.3708786368370056,-0.05024239420890808,0.3970043361186981,0.04698371887207031,0.06441378593444824,0.020558826625347137,0.08468840271234512,0.2660410702228546,0.33451929688453674,0.18261606991291046,0.06661639362573624,0.05917147174477577,0.04381364583969116,-0.1424165517091751,-0.19527457654476166,-0.25459086894989014,-0.010083850473165512,-0.024449678137898445,-0.10904043167829514,-0.116607666015625,0.005532471928745508,0.19906698167324066,0.14858047664165497,0.11346714198589325,-0.11477377265691757,-0.16469541192054749,-0.21795043349266052,-0.14017848670482635,-0.15372325479984283,0.06938125193119049,0.5131947994232178,0.20306044816970825,0.049650851637125015,0.08268515020608902,0.06340613961219788,0.33211541175842285,0.4565635025501251,0.17442983388900757,0.18182124197483063,0.01823297142982483,-0.05068312957882881,-0.06730625033378601,-0.26520246267318726,-0.2813647389411926,-0.11825545132160187,0.1040116399526596,-0.02089649811387062,0.1173117607831955,0.10236089676618576,0.19983425736427307,0.10217125713825226,0.0528450533747673,-0.06861568987369537,-0.013595030643045902,0.04407224431633949,0.032283931970596313,-0.013490214943885803,0.32116276025772095,0.5352906584739685,0.11220885068178177,-0.0455106757581234,0.03487963229417801,0.17798161506652832,0.45059734582901,0.43874096870422363,0.4427695572376251,0.21437375247478485,0.09851223975419998,-0.007765901740640402,-0.1344301998615265,-0.38300222158432007,-0.4350487291812897,-0.27434679865837097,0.08859013020992279,0.11129593104124069,0.17662398517131805,0.2037292867898941,0.20528872311115265,0.0722980797290802,-0.023368341848254204,0.013286800123751163,0.14651714265346527,0.07722322642803192,0.01524344552308321,0.16506291925907135,0.410419762134552,0.6384197473526001,0.13784700632095337,0.051066916435956955,0.000991183565929532,0.09562498331069946,0.3644801676273346,0.4459804594516754,0.510193407535553,0.3685259521007538,0.16338571906089783,-0.14116863906383514,-0.2710329592227936,-0.4332748055458069,-0.5129124522209167,-0.33215275406837463,-0.068322092294693,0.0973387286067009,0.00256073335185647,-0.006760073825716972,-0.01620982401072979,0.0015118957962840796,-0.04065139591693878,0.07299496233463287,0.07319831848144531,0.18166249990463257,0.1891614943742752,0.27410686016082764,0.43050554394721985,0.4125243127346039,0.11156079173088074,-0.035641860216856,-0.01474741380661726,0.15298938751220703,0.2829221785068512,0.5011767745018005,0.570023238658905,0.5051771998405457,0.27180734276771545,-0.020001644268631935,-0.1671229749917984,-0.3966410458087921,-0.4225772023200989,-0.39622461795806885,-0.16717612743377686,0.023049132898449898,-0.08942455798387527,-0.20046167075634003,-0.029280319809913635,0.032975148409605026,0.11775027960538864,0.11768098920583725,0.038132719695568085,0.20357397198677063,0.2916477918624878,0.3689821660518646,0.44713807106018066,0.34508010745048523,0.06505196541547775,-0.06160258874297142,0.02537226304411888,0.16998247802257538,0.295882910490036,0.41357600688934326,0.519660234451294,0.5933336615562439,0.3753802478313446,0.10903337597846985,-0.10672130435705185,-0.30618682503700256,-0.33619698882102966,-0.23516064882278442,-0.3268194794654846,-0.24070869386196136,-0.3454483449459076,-0.1474623680114746,-0.08704392611980438,-0.029585279524326324,0.08021112531423569,0.0819682627916336,0.1238459125161171,0.24558261036872864,0.3628411293029785,0.45895862579345703,0.36899909377098083,0.3123423159122467,-0.03178861737251282,0.07923298329114914,0.0963616594672203,0.10058418661355972,0.3610490560531616,0.33706134557724,0.4631243944168091,0.5027197003364563,0.3887816369533539,0.31186753511428833,0.14000502228736877,-0.11538518965244293,-0.1657802015542984,-0.2399429976940155,-0.34375274181365967,-0.36099526286125183,-0.247162327170372,-0.2258390486240387,-0.11428278684616089,0.02436514012515545,0.12476050853729248,0.17490635812282562,0.2746918499469757,0.2392592877149582,0.5063199996948242,0.3613262176513672,0.3088197410106659,0.10640384256839752,-0.043246280401945114,-0.016173282638192177,-0.024601440876722336,0.05647870898246765,0.19047266244888306,0.2797645330429077,0.2928959131240845,0.42756223678588867,0.3093375265598297,0.2842664420604706,0.32277315855026245,0.1297011524438858,-0.000868538860231638,-0.09067080169916153,-0.09313593804836273,-0.21837040781974792,-0.059250980615615845,0.028611792251467705,0.0018655020976439118,0.0733535960316658,0.20562802255153656,0.20039011538028717,0.3089439570903778,0.23312419652938843,0.4180208742618561,0.305433988571167,0.1561945080757141,-0.031651414930820465,-0.02502986043691635,-0.023611832410097122,0.03212948888540268,0.042746324092149734,0.0818292498588562,0.13666324317455292,0.14225170016288757,0.1370885819196701,0.15970075130462646,0.22662492096424103,0.16858023405075073,0.32898712158203125,0.2532981038093567,0.16008752584457397,0.176044300198555,0.17676998674869537,0.14204297959804535,0.15639537572860718,0.2218388468027115,0.22024600207805634,0.31925228238105774,0.25443559885025024,0.24228891730308533,0.2710556089878082,0.27662089467048645,0.20356005430221558,0.049100156873464584,0.11042265594005585,0.046321019530296326,-0.011541970074176788,-0.07554531842470169,0.09646684676408768,0.14247192442417145,0.08089324086904526,0.12850771844387054,0.17846240103244781,0.17176899313926697,0.11041036248207092,0.16744299232959747,0.21948151290416718,0.25013062357902527,0.25909075140953064,0.22109773755073547,0.2538854777812958,0.3199349641799927,0.2734996974468231,0.2841189205646515,0.3170827329158783,0.24875274300575256,0.26937925815582275,0.22583085298538208,0.2452881634235382,0.14810459315776825,0.021907269954681396,0.03679916262626648,-0.01777268946170807,-0.028473153710365295,-0.009107999503612518,0.04027221351861954,0.0409667007625103,0.041370172053575516,0.040464770048856735,0.08608119189739227,0.16802233457565308,0.21183539927005768,0.24329489469528198,0.23776325583457947,0.2782292366027832,0.25816091895103455,0.3199459910392761,0.3396487832069397,0.3512655198574066,0.2538796365261078,0.16788813471794128,0.21333730220794678,0.2570682764053345,0.2779918909072876,0.28164583444595337,0.12635846436023712,0.17508389055728912,0.0685504600405693,0.13472282886505127,-0.017690079286694527,0.06444917619228363,0.061619579792022705,0.0031749680638313293,0.07148917764425278,0.05635089427232742,-0.010775757022202015,0.08997311443090439,0.009933114051818848,0.010085128247737885,0.05133919417858124,0.1603306084871292,0.2455051839351654,0.1738116592168808,0.19995655119419098,0.16243202984333038,0.14068296551704407,0.1015869602560997,0.170352965593338,0.1213972270488739,0.13368886709213257,0.08086848258972168,0.17371957004070282,0.10506154596805573,0.07496180385351181,-0.04138731211423874,0.04352831095457077,0.041709985584020615,0.06769929081201553,-0.04293471947312355,0.04584915190935135,-0.052664048969745636,0.01548420637845993,-0.03247823938727379,-0.020691487938165665,-0.06414832174777985,0.08909659087657928,0.08480420708656311,0.034155938774347305,-0.050385572016239166,0.026681410148739815,0.004442070610821247,0.04701920971274376,0.04944336786866188,0.03487086296081543,0.032987117767333984,0.09084443002939224,-0.00467294454574585,0.027024801820516586,-0.026588167995214462,0.10720508545637131,0.046285372227430344,-0.0305876936763525,-0.03425894305109978,0.01530005969107151,-0.03125283122062683,0.00889170914888382,0.005940958857536316,-0.07362184673547745,0.2636060416698456
48,-0.04073329642415047,-0.04500080272555351,0.048556916415691376,-0.05063744634389877,0.014582596719264984,0.008540362119674683,-0.0715796947479248,0.03762713819742203,-0.06793476641178131,-0.08060016483068466,0.007355600595474243,-0.053086794912815094,0.0387757271528244,-0.06524814665317535,0.05981995910406113,0.02812456339597702,0.02779988944530487,0.0558478906750679,0.04523999243974686,0.007560402154922485,0.024824902415275574,-0.03467343747615814,0.07499959319829941,0.04527021199464798,-0.022152312099933624,0.024333462119102478,-0.05786272883415222,0.06500270217657089,0.03335551172494888,0.020592059940099716,-0.012422342784702778,0.0031294897198677063,-0.0030992436222732067,-0.017977269366383553,-0.03209809586405754,-0.008627931587398052,-0.08771821111440659,-0.22321386635303497,-0.28149449825286865,-0.1641043722629547,-0.21222305297851562,-0.06239229440689087,-0.04273820295929909,-0.11242379993200302,-0.014768688008189201,-0.12601415812969208,-0.3316310942173004,-0.22068308293819427,-0.19954043626785278,-0.08434139937162399,-0.09031444787979126,-0.005686306394636631,0.02495685964822769,0.00810723751783371,-0.00481848418712616,0.02765476703643799,-0.02767377346754074,-0.00606565922498703,0.025788992643356323,0.05269988998770714,-0.11084137111902237,-0.08438333868980408,-0.01972895860671997,-0.1514211893081665,-0.12282150983810425,-0.29234057664871216,-0.38540342450141907,-0.2771800756454468,-0.2485218495130539,-0.21204689145088196,-0.3401082456111908,-0.29596084356307983,-0.3607819676399231,-0.3742094337940216,-0.37518975138664246,-0.5103923082351685,-0.42133858799934387,-0.3159719407558441,-0.41664567589759827,-0.19022582471370697,-0.17384746670722961,0.0010520565556362271,0.0468185618519783,0.07229866087436676,-0.0726403221487999,0.06171765178442001,0.09947231411933899,0.05349292978644371,-0.020371481776237488,0.05176922306418419,0.032803039997816086,-0.039749372750520706,-0.0817582979798317,-0.00395607715472579,-0.008602015674114227,-0.007548510562628508,0.04537966102361679,0.046011921018362045,-0.05386390909552574,-0.18124741315841675,-0.24575480818748474,-0.3803902566432953,-0.5160866975784302,-0.5515336990356445,-0.554543673992157,-0.5489773154258728,-0.5496963858604431,-0.5047959089279175,-0.35761117935180664,-0.0796981230378151,-0.060989655554294586,-0.027094118297100067,-0.0465666726231575,0.01647952012717724,0.029908843338489532,0.07270205765962601,-0.0752054825425148,0.017870260402560234,0.0530056357383728,0.025567268952727318,0.00648899469524622,0.042784303426742554,-0.04547538608312607,-0.0276565570384264,0.12112148106098175,0.18081223964691162,0.09550786018371582,0.07925859093666077,-0.0677570104598999,-0.22483433783054352,-0.36063864827156067,-0.513989269733429,-0.5553960204124451,-0.537673830986023,-0.6209850907325745,-0.6366203427314758,-0.4033985733985901,-0.15594129264354706,0.10455800592899323,0.10766196995973587,-0.07094504684209824,0.013746313750743866,0.0021290716249495745,0.04213386029005051,-0.08204781264066696,-0.062398359179496765,-0.023701587691903114,-0.03090086579322815,-0.18131418526172638,-0.06313896924257278,-0.15885218977928162,-0.10351330786943436,0.062131237238645554,0.06320924311876297,0.035615164786577225,0.0411299429833889,0.05760255083441734,-0.02715148963034153,-0.16328208148479462,-0.2955307066440582,-0.3812430202960968,-0.25150036811828613,-0.3771149516105652,-0.4010567367076874,-0.3107195496559143,-0.1661262810230255,0.06325994431972504,0.003461543470621109,-0.03882024437189102,0.03243010863661766,0.020945163443684578,-0.18115732073783875,-0.1873929351568222,-0.18683676421642303,-0.17475704848766327,-0.1392425298690796,-0.15185537934303284,-0.16576547920703888,-0.19170308113098145,0.007784094195812941,-0.006863987073302269,0.1061573401093483,0.20414240658283234,0.19507423043251038,0.21482157707214355,0.16611826419830322,0.13647833466529846,0.13950610160827637,0.09862174093723297,0.12035276740789413,0.1135382354259491,-0.08249782025814056,-0.12250121682882309,-0.035851363092660904,-0.00808308832347393,-0.023353807628154755,0.07727968692779541,-0.028758715838193893,0.05885995551943779,-0.10152644664049149,-0.23095284402370453,-0.08195401728153229,-0.14740848541259766,-0.09149987250566483,-0.09928955137729645,-0.015699656680226326,0.018848702311515808,0.08067571371793747,0.2183530032634735,0.3179266154766083,0.3925703465938568,0.4668663740158081,0.37818020582199097,0.4282429814338684,0.4749932885169983,0.581484854221344,0.5775996446609497,0.5633233189582825,0.6057376265525818,0.4072534143924713,0.1334781050682068,0.025608982890844345,-0.07334677129983902,0.0007968022837303579,-0.0649479478597641,-0.09782315790653229,-0.01728266105055809,-0.14248737692832947,-0.11944898962974548,-0.10365814715623856,0.045722488313913345,0.05497082695364952,-0.013156460598111153,0.1483968198299408,0.13446150720119476,0.21137894690036774,0.37067264318466187,0.4603506922721863,0.5009079575538635,0.4674265682697296,0.4860280752182007,0.576901912689209,0.7956418991088867,0.8054595589637756,0.8136892914772034,0.7501523494720459,0.758468508720398,0.70157390832901,0.3806813359260559,0.1398514211177826,0.09004727751016617,0.1213647872209549,-0.05327952653169632,-0.08461625128984451,0.05376352742314339,0.06919077038764954,-0.0338309071958065,0.03895188122987747,0.06766769289970398,0.040964845567941666,0.11796939373016357,0.1393146514892578,0.14778071641921997,0.19194328784942627,0.2685951590538025,0.24904978275299072,0.31175175309181213,0.3902910649776459,0.545455813407898,0.714831531047821,0.8766590356826782,0.6847541332244873,0.7608594298362732,0.6743919849395752,0.5834817886352539,0.38742849230766296,0.20983538031578064,-0.05273322016000748,-0.11017236113548279,-0.04664892703294754,-0.030645951628684998,0.020298276096582413,-0.0465565025806427,-0.053254954516887665,-0.07426387816667557,0.1087656319141388,-0.01026091817766428,0.00874970480799675,-0.0698213279247284,0.14065761864185333,0.1087479442358017,-0.059917353093624115,-0.15850701928138733,-0.33471760153770447,-0.11670438200235367,0.17887501418590546,0.46419885754585266,0.5772654414176941,0.5120611786842346,0.4427732527256012,0.37350666522979736,0.3921755254268646,0.30022892355918884,0.19453658163547516,0.10521052777767181,-0.0903727114200592,-0.011478946544229984,0.04428645223379135,-0.06718528270721436,-0.005490526556968689,-0.019073206931352615,-0.0047103106044232845,0.0013051225105300546,0.06789722293615341,-0.07633661478757858,-0.16145551204681396,-0.008528610691428185,-0.095424585044384,-0.2402004897594452,-0.4413161277770996,-0.663451075553894,-0.624845564365387,-0.33471035957336426,0.01016487181186676,0.0561671145260334,0.0639965683221817,0.19118362665176392,0.22620098292827606,0.14706109464168549,0.005908433813601732,-0.004312408156692982,-0.12584015727043152,-0.18613068759441376,-0.08821020275354385,0.16456198692321777,-0.06945878267288208,-0.010530448518693447,-0.04095078259706497,-0.17614752054214478,-0.08114434778690338,-0.08768128603696823,-0.08174032717943192,-0.20978954434394836,-0.12483569979667664,-0.0931018516421318,-0.21970206499099731,-0.3289548456668854,-0.4829019606113434,-0.748465359210968,-0.6313446760177612,-0.1624710112810135,-0.05426497757434845,-0.3012566566467285,-0.21923044323921204,-0.08009310811758041,0.07542095333337784,0.08163852244615555,-0.11640128493309021,-0.20965291559696198,-0.34197404980659485,-0.30892428755760193,0.06837569922208786,0.1376023292541504,0.05039031803607941,0.06343430280685425,-0.08491690456867218,-0.0959794670343399,-0.17656633257865906,0.0010263427393510938,-0.16806574165821075,-0.26118987798690796,-0.1439848244190216,-0.05558865889906883,-0.13804353773593903,-0.30026236176490784,-0.35782676935195923,-0.5741116404533386,-0.27332374453544617,-0.06124681979417801,-0.19913074374198914,-0.28690874576568604,-0.32007890939712524,-0.1423702985048294,-0.043439894914627075,-0.08471699059009552,-0.20344065129756927,-0.2612912356853485,-0.42013129591941833,-0.41044604778289795,0.006735385395586491,0.29908424615859985,0.14312899112701416,0.04885253682732582,-0.06291064620018005,-0.17265239357948303,-0.15242280066013336,0.18430331349372864,-0.09777244180440903,-0.21874463558197021,-0.015688849613070488,0.03110053949058056,-0.0676264837384224,-0.131543830037117,-0.16979587078094482,-0.16583405435085297,0.1884775012731552,0.1151813268661499,-0.11056804656982422,-0.3266967833042145,-0.16436193883419037,-0.1358029693365097,-0.17963573336601257,-0.13681423664093018,-0.2308827042579651,-0.2588791847229004,-0.4008954167366028,-0.3193199932575226,0.013548774644732475,0.3563392460346222,0.0821622908115387,-0.10038021951913834,0.042827706784009933,-0.021486198529601097,0.061103712767362595,0.35487934947013855,0.10470644384622574,0.027447780594229698,0.08241867274045944,0.13172705471515656,0.1673392802476883,0.05324254184961319,0.03279399126768112,0.1387539654970169,0.289713054895401,0.23741333186626434,-0.04017770662903786,-0.0126326410099864,-0.1335098147392273,-0.16657882928848267,-0.2925160527229309,-0.16929474472999573,-0.19104136526584625,-0.3438454270362854,-0.3008502125740051,-0.06904669106006622,0.1456153243780136,0.4791719317436218,0.15081457793712616,-0.06003871560096741,-0.03482549265027046,-0.0337090902030468,0.2021695226430893,0.3645550608634949,0.25907406210899353,0.14793959259986877,0.10832368582487106,0.14115525782108307,0.10917127877473831,0.14261527359485626,0.06480198353528976,0.28185856342315674,0.33461448550224304,0.19767147302627563,0.16867804527282715,0.1426464021205902,0.08919274061918259,-0.12260981649160385,-0.3142080008983612,-0.2304251343011856,-0.13714666664600372,-0.20466084778308868,-0.08431867510080338,0.0257182065397501,0.4519534707069397,0.47768649458885193,0.07175634801387787,-0.06449726969003677,-0.03770063444972038,0.061158549040555954,0.10036718100309372,0.4472968876361847,0.3496165871620178,0.18120141327381134,0.05779087916016579,0.15089604258537292,0.06828003376722336,0.055382050573825836,0.015986742451786995,0.1372191309928894,0.2742190957069397,0.2945988178253174,0.29840943217277527,0.3073652982711792,0.0026574605144560337,-0.14114414155483246,-0.3349514305591583,-0.2292519509792328,-0.1522950828075409,0.040740497410297394,0.10345948487520218,0.39445433020591736,0.3414686322212219,0.5346143245697021,0.213883638381958,-0.04684409126639366,-0.004818943794816732,0.056694772094488144,0.07392117381095886,0.39452099800109863,0.2901500463485718,0.2071426808834076,0.18200847506523132,0.005850105080753565,-0.07750197499990463,-0.10685139149427414,-0.12939520180225372,-0.12531179189682007,0.09207183867692947,0.22822102904319763,0.21908794343471527,0.030135631561279297,-0.10161781311035156,-0.24799418449401855,-0.16772755980491638,-0.19113437831401825,-0.13520312309265137,0.004256155341863632,0.24119333922863007,0.42869168519973755,0.46433863043785095,0.38920682668685913,0.1685602366924286,-0.038656558841466904,0.024044908583164215,-0.06601297855377197,0.06993289291858673,0.3285263478755951,0.3742602467536926,0.2868419885635376,0.16106976568698883,0.050609707832336426,-0.10033927857875824,-0.24111677706241608,-0.34249645471572876,-0.1814376264810562,0.009057190269231796,0.06225286051630974,-0.0805482268333435,-0.14054229855537415,-0.24960829317569733,-0.15016812086105347,-0.21314319968223572,-0.11995932459831238,0.016409166157245636,0.11446674168109894,0.30948594212532043,0.539263904094696,0.41883721947669983,0.36846306920051575,0.17078007757663727,0.040988579392433167,-0.03897705301642418,-0.10801509022712708,0.012900191359221935,0.2511661648750305,0.26678985357284546,0.3399540185928345,0.24677298963069916,0.14820732176303864,-0.029429957270622253,-0.09266446530818939,-0.24835243821144104,-0.2310008704662323,-0.1523401141166687,-0.2467181384563446,-0.2648909091949463,-0.22545386850833893,-0.19622980058193207,-0.18409956991672516,-0.10119722038507462,-0.043183714151382446,0.098849356174469,0.2684144079685211,0.3801819980144501,0.531086266040802,0.3519230782985687,0.12901905179023743,0.07266255468130112,-0.052529141306877136,-0.11238674074411392,-0.1762196570634842,-0.060658738017082214,0.14022764563560486,0.2337031215429306,0.2583983540534973,0.15229587256908417,0.11717582494020462,0.13502390682697296,-0.011367470026016235,-0.1753583699464798,-0.36062806844711304,-0.29246318340301514,-0.28921255469322205,-0.3186328113079071,-0.29566729068756104,-0.34905892610549927,-0.1484726071357727,-0.11680351197719574,0.009231486357748508,0.286388099193573,0.4361483156681061,0.40134429931640625,0.4283541142940521,0.3362807035446167,0.11958670616149902,0.03675028681755066,0.06624791771173477,-0.015314112417399883,-0.15666437149047852,-0.21021829545497894,-0.09379925578832626,0.06838762760162354,0.16464756429195404,0.14899876713752747,0.19209927320480347,0.05711106210947037,0.11050181835889816,0.049248386174440384,-0.027720654383301735,-0.17804959416389465,-0.20038391649723053,-0.16466735303401947,-0.25811928510665894,-0.20881564915180206,-0.004186462145298719,0.12026778608560562,0.15625742077827454,0.2756384313106537,0.35385721921920776,0.4383576512336731,0.4016340672969818,0.3135334849357605,-0.08534989506006241,0.021327123045921326,0.0341191291809082,0.06885727494955063,-0.11536013334989548,-0.2178318053483963,-0.2229248434305191,-0.21592946350574493,-0.16985687613487244,-0.10177522152662277,-0.051344286650419235,-0.054192859679460526,0.08477121591567993,0.1374656856060028,0.16098245978355408,0.20467519760131836,0.16330547630786896,0.07229239493608475,0.17204292118549347,0.25641632080078125,0.15227286517620087,0.18780486285686493,0.3449483811855316,0.413494735956192,0.2625467777252197,0.23880122601985931,0.3245764672756195,0.1389879584312439,0.00013462583592627198,0.009027361869812012,0.042056046426296234,-0.02987689897418022,-0.07550612837076187,-0.148758664727211,-0.12345267087221146,-0.13086195290088654,-0.2660868465900421,-0.1477956920862198,-0.049125224351882935,-0.15191984176635742,0.03035883605480194,-0.025321627035737038,0.066837839782238,0.21982122957706451,0.1818283349275589,0.29066306352615356,0.39103075861930847,0.3482114374637604,0.3956485688686371,0.40474745631217957,0.33179575204849243,0.2122914344072342,0.1707344949245453,0.1189107894897461,0.05209987238049507,0.11384759843349457,-0.0033712873701006174,0.03522452712059021,-0.046164922416210175,0.012314260005950928,-0.030486900359392166,-0.0788581520318985,-0.06706894189119339,-0.0006055026897229254,-0.13144834339618683,0.0005356281762942672,0.09488094598054886,0.043914176523685455,0.10108909755945206,0.24716457724571228,0.18809667229652405,0.31077268719673157,0.2640669643878937,0.3900701403617859,0.40683531761169434,0.4211697280406952,0.39542049169540405,0.39680036902427673,0.26877105236053467,0.10590163618326187,0.02336272783577442,0.014331852085888386,0.003497057594358921,0.09223966300487518,-0.06654448807239532,0.05224212259054184,0.07168283313512802,0.06553704291582108,-0.050639718770980835,0.1004561111330986,0.06615178287029266,0.06902527064085007,0.11494320631027222,0.10889381170272827,0.056006934493780136,0.2680709660053253,0.21644751727581024,0.21363162994384766,0.2877681255340576,0.23716871440410614,0.3421253561973572,0.3462304472923279,0.24775727093219757,0.34499216079711914,0.33696749806404114,0.23455114662647247,0.1490601897239685,0.16249936819076538,0.0411524698138237,-0.002637368394061923,-0.018027527257800102,-0.062399972230196,-0.0374709814786911,-0.06822750717401505,-0.019775085151195526,0.052696846425533295,0.040636613965034485,-0.0030065253376960754,0.055363722145557404,0.0447625108063221,0.028677066788077354,0.07086049765348434,0.09196864068508148,-0.0009109300444833934,0.07254794985055923,0.0452866330742836,0.08240502327680588,0.10665411502122879,0.18168069422245026,0.18580107390880585,0.0524812713265419,0.14334508776664734,0.03487979993224144,-0.012691104784607887,0.05631690472364426,-0.10620040446519852,0.007051823195070028,-0.028722533956170082,0.0050082728266716,-0.00045083463191986084,0.07693398743867874,-0.025168661028146744,0.1028512716293335
117,0.013659045100212097,0.030001796782016754,0.009380631148815155,0.0757957175374031,-0.016462154686450958,0.0060393959283828735,0.008989907801151276,0.05227680131793022,-0.05382715165615082,-0.014121845364570618,-0.007603511214256287,0.017809338867664337,-0.058098554611206055,-0.020203791558742523,-0.0067003099247813225,0.023403771221637726,0.02822939306497574,0.005592271685600281,-0.07092981040477753,0.018756933510303497,-0.004256919026374817,0.07689914852380753,-0.06782320141792297,0.08032896369695663,-0.02597959339618683,-0.03698726370930672,-0.00590081512928009,0.057595379650592804,-0.007361352443695068,0.023230472579598427,0.041942328214645386,0.010123610496520996,-0.08987455815076828,-0.006869363598525524,-0.024923741817474365,-0.04992825165390968,0.0160204004496336,-0.024626735597848892,-0.0071344985626637936,-0.06580088287591934,0.022222407162189484,-0.10293698310852051,-0.061480812728405,-0.05445658043026924,-0.02180245704948902,-0.14587396383285522,-0.0922902449965477,-0.033996984362602234,-0.030188417062163353,0.10313630104064941,0.06704075634479523,-0.0001340246817562729,0.04344931244850159,-0.07988730818033218,0.050600193440914154,0.01610187441110611,0.01596849411725998,-0.007408209145069122,0.03848307952284813,0.019437778741121292,0.052044209092855453,-0.04535890370607376,0.02644297294318676,0.06141456961631775,-0.07166372984647751,-0.04155929386615753,-0.021352732554078102,0.006178070791065693,-0.14379838109016418,-0.24121302366256714,-0.2146870195865631,-0.23363977670669556,-0.2636290192604065,-0.15477393567562103,-0.25586697459220886,-0.2179211676120758,-0.21600241959095,-0.11030475795269012,-0.08316658437252045,-0.06978750973939896,-0.13303621113300323,-0.030733076855540276,-0.03639915585517883,-0.007016231305897236,-0.07656438648700714,-0.03289630636572838,-0.04677300900220871,0.06557807326316833,0.12899956107139587,0.04589071869850159,-0.05201202630996704,-0.02930135652422905,0.12643735110759735,0.10399117320775986,0.044048260897397995,0.05669780075550079,-0.12396000325679779,-0.03314516320824623,-0.23115848004817963,-0.2999958395957947,-0.25590941309928894,-0.20551586151123047,-0.22262831032276154,-0.29047393798828125,-0.14313721656799316,-0.23461708426475525,-0.15734079480171204,-0.18531006574630737,-0.029435785487294197,-0.12448843568563461,-0.019067944958806038,0.03978274017572403,0.017623186111450195,0.05906815454363823,0.0658932626247406,0.0022642931435257196,-0.04407689347863197,0.11118194460868835,0.015413962304592133,0.16722479462623596,0.09604398906230927,0.18886351585388184,0.013084128499031067,0.1382308155298233,0.08917981386184692,0.1157180592417717,0.1907937377691269,0.04865378886461258,0.06320949643850327,-0.0693124309182167,-0.13192133605480194,-0.15567609667778015,-0.22476375102996826,-0.22375045716762543,-0.2610011696815491,-0.3605891168117523,-0.1998724341392517,-0.14279355108737946,-0.008874676190316677,-0.0355633944272995,0.023322463035583496,-0.04822215810418129,0.0741371139883995,-0.059063054621219635,0.09791048616170883,0.15891698002815247,0.17192067205905914,0.1912166029214859,0.2960905134677887,0.19644181430339813,0.2587480843067169,0.2018629014492035,0.12705427408218384,0.1695975810289383,0.334157258272171,0.28069645166397095,0.3612755239009857,0.24169932305812836,0.20408198237419128,0.04755895212292671,-0.046469684690237045,-0.21361111104488373,-0.2624187469482422,-0.26203906536102295,-0.1859724521636963,-0.13805468380451202,-0.17439690232276917,-0.04082481563091278,0.039740972220897675,0.03964651748538017,-0.0423552542924881,0.11634410172700882,0.09890595823526382,0.27500465512275696,0.20910952985286713,0.3737810552120209,0.3579503297805786,0.3427545428276062,0.2205905169248581,0.06426902115345001,-0.10516761988401413,-0.2864769399166107,-0.3788301944732666,-0.5276272892951965,-0.4202408790588379,-0.23274916410446167,-0.032523203641176224,-0.05079832300543785,-0.040147747844457626,-0.052557576447725296,-0.09375561773777008,-0.11359299719333649,-0.25798362493515015,-0.16232186555862427,-0.01443435624241829,-0.00922915618866682,-0.02997441031038761,0.017001956701278687,0.0930253341794014,0.1567019373178482,0.24716070294380188,0.3102388381958008,0.510710597038269,0.4744248688220978,0.47287073731422424,0.440775066614151,0.22824329137802124,-0.0851360484957695,-0.34814271330833435,-0.5445243716239929,-0.8357659578323364,-0.7051944136619568,-0.6812171936035156,-0.35828202962875366,-0.055251266807317734,0.06376206129789352,0.13959521055221558,0.08068206161260605,0.06817746162414551,0.13542746007442474,0.060006652027368546,-0.03522994741797447,0.05283535644412041,0.0266106016933918,0.042905889451503754,0.13090981543064117,0.3306191861629486,0.3668670654296875,0.43898120522499084,0.45365819334983826,0.5594183802604675,0.5542990565299988,0.40569689869880676,0.2785027027130127,0.05468132346868515,-0.09304804354906082,-0.4241013824939728,-0.4328776001930237,-0.4013136029243469,-0.26243025064468384,-0.1362784504890442,0.15667542815208435,0.2637017071247101,0.2715258002281189,0.36368900537490845,0.4014272391796112,0.2863278090953827,0.3457167148590088,0.14101643860340118,0.016140196472406387,-0.03452839329838753,0.05816808342933655,0.11922398209571838,0.10641257464885712,0.41830068826675415,0.38992032408714294,0.4623660147190094,0.519669234752655,0.5020895004272461,0.3161192536354065,0.13127703964710236,0.09722300618886948,-0.09018415212631226,-0.23241518437862396,-0.08962271362543106,0.08075384050607681,0.17604407668113708,0.3491295576095581,0.5197150111198425,0.45419248938560486,0.49244070053100586,0.5193749070167542,0.5389043092727661,0.5072505474090576,0.41305917501449585,0.29276594519615173,0.1884019821882248,0.09982465207576752,-0.08939440548419952,-0.018391665071249008,0.05659634247422218,0.14849689602851868,0.2858004570007324,0.33191362023353577,0.5187914371490479,0.35277649760246277,0.24164585769176483,0.11355970054864883,-0.09030422568321228,-0.11887907236814499,-0.1552651822566986,-0.11257553845643997,0.12155234813690186,0.2716164290904999,0.29137247800827026,0.3795473873615265,0.48312586545944214,0.44034552574157715,0.37935808300971985,0.42954233288764954,0.3511603772640228,0.47474586963653564,0.4191770851612091,0.31774887442588806,0.1706302911043167,0.030032189562916756,-0.023336097598075867,0.06648245453834534,0.04469009116292,0.2902010679244995,0.4059092700481415,0.39429906010627747,0.40365779399871826,0.2587742805480957,-0.043316055089235306,-0.2157878875732422,-0.2678447961807251,-0.20707188546657562,-0.06077415123581886,-0.02384709194302559,0.03830515965819359,0.08511555939912796,0.02218184806406498,0.11906097084283829,0.17859268188476562,0.21075068414211273,0.22763150930404663,0.17746491730213165,0.15098297595977783,0.2293398529291153,0.33348530530929565,0.3223840296268463,0.14619380235671997,-0.10293865948915482,0.04852936416864395,-0.06347214430570602,0.09641572833061218,0.1445581018924713,0.3011038303375244,0.39228683710098267,0.3229970335960388,0.139201357960701,-0.17626644670963287,-0.2480977177619934,-0.24137918651103973,-0.1934143304824829,-0.1017354428768158,-0.06602692604064941,-0.13538631796836853,-0.2221371829509735,-0.18108288943767548,-0.14211717247962952,-0.004855016712099314,0.03182986378669739,0.07667341083288193,0.05490187183022499,0.06898529827594757,0.21920658648014069,0.369853675365448,0.2923636734485626,0.299207866191864,0.18012551963329315,0.010937508195638657,0.04892371594905853,0.07664477080106735,0.14194409549236298,0.2858525514602661,0.3742468059062958,0.22873160243034363,0.0033445830922573805,-0.048956017941236496,-0.1860857754945755,-0.2351979911327362,-0.1367313414812088,-0.1297938972711563,-0.08039223402738571,-0.14705225825309753,-0.17023316025733948,-0.2406902313232422,-0.10236036777496338,-0.12870419025421143,-0.08832757920026779,-0.08338704705238342,-0.021750373765826225,0.19098608195781708,0.21838334202766418,0.32939863204956055,0.33805257081985474,0.24357154965400696,0.0753067135810852,0.02459602616727352,-0.0448203943669796,-0.0590423047542572,0.0801922082901001,0.08099699020385742,0.20881393551826477,0.19122634828090668,0.12297236919403076,0.1087484136223793,-0.013896754011511803,-0.027862466871738434,-0.0541253499686718,-0.15492641925811768,-0.18793882429599762,-0.19452297687530518,0.0165556613355875,0.0023876044433563948,0.06092401221394539,0.12321438640356064,0.08195094764232635,0.005929697770625353,0.19635778665542603,0.18573693931102753,0.3047977685928345,0.3568209409713745,0.2564025819301605,0.22555238008499146,0.03499981015920639,0.017485709860920906,0.050296664237976074,0.05695895105600357,0.05816194415092468,0.15418893098831177,0.1442040055990219,0.1780899316072464,0.32858628034591675,0.19722485542297363,0.2044982612133026,0.035727567970752716,-0.043976157903671265,-0.07461809366941452,-0.009977295994758606,-0.019050948321819305,0.09451062977313995,0.2426813393831253,0.2907775640487671,0.1634812206029892,0.07175897061824799,0.0881405919790268,0.22535493969917297,0.2625901699066162,0.27739089727401733,0.1723213791847229,0.19382119178771973,0.04082941263914108,0.06752405315637589,0.009872982278466225,-0.053299419581890106,0.034259188920259476,-0.06989399343729019,-0.018242673948407173,-0.0019070047419518232,0.1911260336637497,0.3307260572910309,0.3641899526119232,0.31341251730918884,0.18676874041557312,-0.025792794302105904,-0.048579923808574677,0.011655502021312714,0.027921216562390327,0.2526111304759979,0.28983446955680847,0.3742569088935852,0.2151520997285843,0.12245426326990128,0.11877309530973434,0.11781707406044006,0.07279019057750702,0.07956745475530624,0.05959085375070572,-0.0012803798308596015,0.06594766676425934,-0.03387521952390671,0.0316125862300396,0.0451706163585186,0.007668621838092804,0.05007169023156166,0.030992228537797928,0.1131366640329361,-0.017879247665405273,0.10062629729509354,0.25906604528427124,0.22660313546657562,0.13585063815116882,0.01884601078927517,0.03906392678618431,0.09045044332742691,0.17670339345932007,0.2653164863586426,0.3929348587989807,0.3418988585472107,0.24711623787879944,0.20111387968063354,0.05416528508067131,-0.07397907972335815,-0.034249644726514816,-0.08068060129880905,-0.10561962425708771,-0.13133369386196136,-0.16498269140720367,-0.015220087952911854,0.014626830816268921,0.042237453162670135,-0.051601260900497437,0.11047293245792389,-0.0027065197937190533,-0.006745555903762579,-0.08039787411689758,-0.15199138224124908,0.0813218280673027,0.21216577291488647,0.12039998918771744,0.23528195917606354,0.08792393654584885,0.19630703330039978,0.22743919491767883,0.3705883026123047,0.34922704100608826,0.19141808152198792,0.10450420528650284,0.04253996163606644,0.05874748155474663,-0.0616828091442585,-0.24330277740955353,-0.17963887751102448,-0.19208750128746033,-0.188528373837471,-0.1425875425338745,0.013244761154055595,0.002647949382662773,-0.05369812250137329,-0.06389962136745453,0.09975835680961609,0.03275356814265251,0.04460731893777847,-0.03275509551167488,-0.19770635664463043,-0.19771108031272888,-0.06288789957761765,0.12255987524986267,0.16040761768817902,0.2515418827533722,0.3262757956981659,0.3873843550682068,0.3794087767601013,0.1948958933353424,0.24869680404663086,0.042547620832920074,0.048902276903390884,-0.08359576016664505,-0.10390415042638779,-0.1996222585439682,-0.20507945120334625,-0.30750957131385803,-0.19938459992408752,-0.15626482665538788,-0.035164982080459595,-0.10684328526258469,0.05931935831904411,0.0799269899725914,0.09529232978820801,0.005863853730261326,-0.05114036425948143,-0.14540942013263702,-0.24523784220218658,-0.25340190529823303,-0.04598568379878998,0.005543936975300312,0.21761836111545563,0.28321734070777893,0.2790398597717285,0.2530916929244995,0.2874986529350281,0.18056398630142212,0.11932123452425003,0.12160594016313553,0.11924056708812714,0.023892078548669815,-0.16066299378871918,-0.1453685760498047,-0.11504503339529037,-0.21261003613471985,-0.10745278000831604,-0.01676880195736885,-0.07083165645599365,-0.06191146373748779,-0.06737532466650009,0.027257878333330154,0.011914345435798168,0.10431966185569763,-0.01750294305384159,-0.06126529350876808,-0.0792655497789383,-0.21460378170013428,-0.1799820214509964,-0.07735873013734818,0.05976074934005737,0.16260327398777008,0.16145794093608856,0.18710070848464966,0.09080754965543747,0.0201711468398571,0.14475226402282715,0.08013223856687546,0.13401025533676147,0.0017436988418921828,-0.015869803726673126,-0.1538158804178238,-0.19576431810855865,-0.193001851439476,-0.059895023703575134,0.02875572443008423,-0.06347815692424774,-0.02042376808822155,-0.024429818615317345,-0.012141890823841095,0.05164328217506409,-0.04322139173746109,-0.047856662422418594,-0.013289154507219791,0.0034651749301701784,-0.10225408524274826,-0.007038777694106102,-0.1202150508761406,-0.13005663454532623,-0.06335393339395523,-0.004164411220699549,0.11295860260725021,-0.026124559342861176,0.08757326751947403,0.1397600919008255,0.19054314494132996,0.10965508967638016,0.13241168856620789,0.1023867279291153,0.0028600452933460474,-0.03919917717576027,-0.020086243748664856,-0.06979243457317352,-0.10561824589967728,0.03909752145409584,0.0335206612944603,-0.048417627811431885,-0.013414129614830017,-0.05180191248655319,0.04590016230940819,-0.051277391612529755,0.06050125136971474,0.012039929628372192,-0.02069437876343727,0.004433835856616497,-0.019603336229920387,-0.02248341217637062,-0.12293104827404022,-0.05062495544552803,-0.0020458342041820288,0.06765448302030563,0.10845295339822769,0.23490700125694275,0.09677141159772873,0.07166777551174164,0.14451304078102112,0.0482785739004612,-0.09765854477882385,-0.1438998281955719,-0.014815518632531166,-0.08993081748485565,-0.1618552803993225,-0.07263155281543732,0.03927508369088173,0.020375343039631844,0.020882144570350647,-0.036190662533044815,0.05831705778837204,0.013719561509788036,0.01999940350651741,-0.03191819414496422,0.07359056919813156,0.012311706319451332,-0.006354425568133593,-0.013344055972993374,-0.04263961315155029,-0.06442771852016449,-0.05762510001659393,-0.009138258174061775,0.05443428456783295,0.04713195562362671,-0.0697452500462532,-0.18265487253665924,-0.17371787130832672,-0.21172398328781128,-0.21831847727298737,-0.20357677340507507,-0.18055914342403412,-0.11892256885766983,-0.16293494403362274,0.06638266146183014,-0.1004800945520401,-0.057806432247161865,0.03683085739612579,-0.048210594803094864,-0.06677548587322235,-0.07621010392904282,-0.03570180758833885,-0.015666328370571136,-0.11225921660661697,-0.10340135544538498,-0.12937773764133453,-0.1649487018585205,-0.23339194059371948,-0.24830128252506256,-0.34911584854125977,-0.3270067572593689,-0.3130098283290863,-0.3807453513145447,-0.38355502486228943,-0.4349491000175476,-0.549751341342926,-0.40057989954948425,-0.475545734167099,-0.2601340413093567,-0.19150808453559875,-0.15362828969955444,-0.10311413556337357,-0.09472788870334625,0.018155671656131744,-0.010782521218061447,-0.04643987491726875,6.968328671064228e-05,0.05025423318147659,-0.07227824628353119,-0.0810660794377327,-0.005301087163388729,-0.01343444548547268,-0.04154713824391365,0.015350352972745895,0.10892099887132645,0.1744311898946762,0.09854031354188919,0.02927449531853199,0.09329161047935486,0.062088869512081146,0.02835608460009098,-0.10693185776472092,-0.22667913138866425,-0.22664986550807953,-0.2449270635843277,-0.37490594387054443,-0.2616807818412781,0.003759086364880204,-0.007903234101831913,-0.011890198104083538,0.03615734353661537,-0.03952698037028313,-0.06214137375354767,0.05321931093931198,-0.037623532116413116,-0.012506768107414246,-0.05362716317176819,0.0061499630101025105,0.05801592767238617,0.011457315646111965,0.05769024416804314,0.13844645023345947,0.1706695407629013,0.271942138671875,0.33705058693885803,0.3778485059738159,0.4293902516365051,0.32591697573661804,0.3587329685688019,0.41688376665115356,0.4363744556903839,0.2957072854042053,0.047049541026353836,-0.032782796770334244,-0.06634645909070969,0.05278642103075981,0.06061777472496033,0.08032319694757462,0.04771510511636734,0.017526939511299133,0.01957927644252777,0.33982789516448975
127,0.07565443962812424,-0.07502764463424683,0.018987715244293213,0.05869688838720322,0.03012493997812271,-0.036838021129369736,0.07025120407342911,0.06240840256214142,0.0524180606007576,-0.004058942198753357,0.0027064457535743713,0.020581871271133423,0.02820822410285473,0.04219561070203781,0.08988822996616364,0.03959730267524719,-0.06808893382549286,0.03441901504993439,-0.023516658693552017,-0.005826406180858612,-0.07479407638311386,0.056673310697078705,0.04906371980905533,-0.013391934335231781,0.05410792678594589,0.05419819802045822,0.015131048858165741,0.003219887614250183,-0.07481886446475983,-0.07189040631055832,0.021886011585593224,-0.0791424959897995,0.010222915560007095,0.03543500974774361,0.07078911364078522,-0.05233272910118103,0.020952729508280754,0.07837707549333572,0.0851072371006012,0.02591528557240963,-0.01963893324136734,-0.04892602935433388,-0.019750749692320824,0.0417146310210228,0.031707409769296646,0.09120002388954163,0.023958832025527954,0.063822902739048,0.1021227091550827,0.027023039758205414,-0.006920023821294308,-0.056355565786361694,-0.07111107558012009,-0.013467058539390564,-0.047427818179130554,0.057800762355327606,-0.06449711322784424,0.03680209815502167,-0.025340456515550613,0.05323105677962303,0.08416467159986496,0.06563159823417664,0.05696018412709236,0.1250608116388321,0.1862010955810547,0.21447396278381348,0.25685790181159973,0.1321575939655304,0.2271408587694168,0.18952591717243195,0.2097126990556717,0.16471128165721893,0.11667916923761368,0.012099312618374825,0.04972830042243004,-0.042994484305381775,0.0322938971221447,0.012514196336269379,0.04603016749024391,-0.016329573467373848,0.07617372274398804,0.018873071298003197,-0.05379471182823181,-0.08202628046274185,0.03991442173719406,0.022190049290657043,-0.009213401935994625,-0.07501062750816345,0.0046622538939118385,-0.0691227912902832,0.0972461998462677,0.066859669983387,0.1595916450023651,0.12317188084125519,0.07468835264444351,-0.029854580760002136,-0.1121676117181778,0.02640627883374691,-0.011658038012683392,-0.20463764667510986,-0.19584651291370392,-0.21665877103805542,-0.17202754318714142,-0.12155557423830032,-0.23063641786575317,-0.2337527722120285,-0.26649510860443115,-0.05588093027472496,-0.04049449414014816,0.03683057799935341,-0.060906652361154556,0.030277490615844727,0.04793398082256317,0.022414714097976685,0.06402238458395004,-0.017094312235713005,-0.12205333262681961,-0.09140276908874512,0.04973677173256874,-0.11447705328464508,0.00033599641756154597,-0.013189218938350677,-0.10391846299171448,-0.05329197272658348,-0.04862002283334732,0.04485525190830231,0.10700128972530365,0.023219341412186623,-0.008272971957921982,-0.11699037998914719,-0.17279453575611115,-0.10668299347162247,-0.03826988860964775,-0.23249565064907074,-0.3518289029598236,-0.3930767774581909,-0.4401135742664337,-0.20574605464935303,-0.11468934267759323,0.02026645839214325,0.040532082319259644,-0.08000496029853821,0.12132337689399719,-0.0857744887471199,-0.10016226023435593,-0.23092405498027802,-0.2253459244966507,-0.2000156193971634,-0.17550882697105408,-0.1785699725151062,-0.17011605203151703,-0.02987651713192463,-0.03131464123725891,0.028121789917349815,0.042494650930166245,0.06352872401475906,-0.0033890320919454098,-0.01064920611679554,-0.06083713844418526,-0.11480090022087097,-0.15659035742282867,-0.2020820677280426,-0.36288923025131226,-0.5430316925048828,-0.5235464572906494,-0.42982780933380127,-0.3437933623790741,-0.10918500274419785,0.04769179970026016,-0.05439256131649017,-0.05665567144751549,-0.2023591250181198,-0.21073709428310394,-0.2402855008840561,-0.2887197732925415,-0.17574581503868103,-0.22363720834255219,-0.20038248598575592,-0.25498127937316895,-0.22668924927711487,-0.19685056805610657,-0.08044478297233582,0.02558100037276745,0.09026368707418442,0.04971855878829956,0.06304371356964111,-0.06078818067908287,-0.06677983701229095,-0.18467622995376587,-0.2376376837491989,-0.40149471163749695,-0.5874331593513489,-0.7357141971588135,-0.6379261612892151,-0.49615129828453064,-0.1851767599582672,-0.08945871889591217,-0.13056257367134094,-0.039990972727537155,-0.10955993086099625,-0.2097313404083252,-0.1326461136341095,-0.21726153790950775,-0.20874592661857605,-0.12963740527629852,-0.16317693889141083,-0.20782889425754547,-0.20698252320289612,-0.10451488941907883,0.0452597439289093,0.1708953082561493,0.1373630315065384,0.22382397949695587,0.04756710305809975,0.04204040393233299,-0.018434181809425354,-0.10537764430046082,-0.22085940837860107,-0.30525586009025574,-0.5382373332977295,-0.7707608342170715,-0.8149772882461548,-0.4663398861885071,-0.20967376232147217,0.043080683797597885,-0.024969518184661865,0.07166817784309387,-0.16614073514938354,-0.02676945924758911,-0.10693845897912979,-0.06384722888469696,-0.058501675724983215,-0.04208265617489815,-0.03228820115327835,-0.04374859482049942,-0.0012189829722046852,-0.024295561015605927,0.14761686325073242,0.21486587822437286,0.14297765493392944,0.14205686748027802,0.11554989218711853,0.11775673925876617,-0.02971917763352394,-0.12471192330121994,-0.16375020146369934,-0.32710498571395874,-0.5926685333251953,-0.8547543287277222,-0.8659083247184753,-0.5374311208724976,-0.1716271936893463,-0.03609727695584297,-0.11252319067716599,-0.04656822606921196,-0.023177605122327805,-0.10298518091440201,-0.03655977174639702,-0.024395640939474106,0.03054938092827797,0.06879141181707382,0.08113037794828415,0.21901050209999084,0.14353802800178528,0.04017287492752075,0.06737124174833298,0.009271504357457161,0.04228769987821579,0.014649327844381332,0.12031715363264084,0.13099727034568787,0.09026788175106049,0.010952066630125046,-0.11875652521848679,-0.18477940559387207,-0.4405383765697479,-0.847222089767456,-0.9412770867347717,-0.49901989102363586,-0.19248121976852417,0.010880359448492527,-0.019072990864515305,-0.10403230786323547,-0.12282811105251312,-0.14418505132198334,0.012748796492815018,0.03817317262291908,0.12485436350107193,0.23613862693309784,0.27319633960723877,0.2636326551437378,0.16571086645126343,-0.08879194408655167,-0.2993563413619995,-0.3006038963794708,-0.2299644649028778,-0.00858274381607771,0.14045199751853943,0.31040528416633606,0.3448326289653778,0.4297327995300293,0.4646030366420746,0.464432954788208,0.045396145433187485,-0.49787968397140503,-0.7005340456962585,-0.3989664614200592,-0.11654362827539444,0.06588485836982727,0.005517641548067331,-0.08270411193370819,-0.2138519287109375,0.0064584980718791485,-0.017022088170051575,-0.016835596412420273,0.1461382955312729,0.23467330634593964,0.3147188425064087,0.1480255424976349,-0.02439512312412262,-0.2919335663318634,-0.4405335485935211,-0.37129291892051697,-0.13466307520866394,-0.09704412519931793,0.07555276155471802,0.3761270046234131,0.6235432028770447,0.7223995923995972,0.9822216629981995,1.166622281074524,0.8763777613639832,0.431343138217926,-0.3960917890071869,-0.28081580996513367,-0.09356646984815598,0.06875398010015488,0.03657100722193718,-0.029041487723588943,-0.1257672756910324,-0.1136883795261383,0.08837135881185532,0.09869083017110825,0.13818107545375824,0.17224997282028198,0.1703507900238037,0.006422896403819323,-0.30106639862060547,-0.39038294553756714,-0.37990450859069824,-0.32072511315345764,0.012961221858859062,-0.0476706363260746,0.217227965593338,0.30146679282188416,0.5436046123504639,0.7020972371101379,0.9076187014579773,1.1716164350509644,1.1392229795455933,0.9059425592422485,0.13534563779830933,0.014575311914086342,0.06935232132673264,-0.028858207166194916,-0.004351458977907896,-0.06093448027968407,-0.1093694418668747,-0.09952893853187561,0.12401843070983887,0.09674245119094849,0.11161094158887863,0.03885157033801079,-0.05458812415599823,-0.18363098800182343,-0.47653451561927795,-0.5575277805328369,-0.2755463719367981,-0.024456758052110672,0.160877525806427,0.12229073792695999,0.1704125553369522,0.16278763115406036,0.2792412042617798,0.29411041736602783,0.5784575939178467,0.8130229711532593,0.900032639503479,0.7599343061447144,0.19236044585704803,0.04751073941588402,0.07695028930902481,-0.002570154843851924,-0.026205603033304214,-0.11881379038095474,-0.07290319353342056,-0.1143319308757782,0.2889603078365326,0.3830535113811493,0.3625662624835968,0.20945651829242706,-0.0781845822930336,-0.19461296498775482,-0.4898780286312103,-0.48974159359931946,-0.12087241560220718,0.168918177485466,0.14279435575008392,0.05619809404015541,0.060954075306653976,-0.010756609961390495,0.03650248795747757,0.06667295098304749,0.21116824448108673,0.43243345618247986,0.48450395464897156,0.46467870473861694,0.19692736864089966,0.20055393874645233,0.017312556505203247,-0.08055683225393295,-0.028525179252028465,-0.09581363201141357,-0.2707903981208801,0.07986877858638763,0.47650599479675293,0.5796126127243042,0.4674614667892456,0.35537490248680115,0.2181466817855835,-0.09818281978368759,-0.21808338165283203,-0.11667805165052414,0.15278519690036774,0.2494230568408966,0.13276369869709015,0.06882130354642868,0.07205814123153687,-0.09305344521999359,-0.1794939935207367,-0.1947764903306961,-0.1103147640824318,-0.07202649861574173,0.043885838240385056,0.22520911693572998,0.38239604234695435,0.1749306470155716,0.061005011200904846,0.007413742132484913,-0.11895778030157089,-0.2480187714099884,-0.29169994592666626,-0.09867877513170242,0.35880643129348755,0.6151427030563354,0.6357711553573608,0.6165540218353271,0.4455134868621826,0.4131764769554138,0.2511223256587982,0.2833446264266968,0.3488730788230896,0.17423054575920105,0.2037196010351181,0.016229450702667236,-0.04678253084421158,-0.20953066647052765,-0.14567676186561584,-0.14012360572814941,-0.18633221089839935,-0.19960229098796844,-0.08738256245851517,0.026350531727075577,0.3499114513397217,0.36938074231147766,-0.03117448277771473,0.026660844683647156,-0.11416173726320267,-0.23207706212997437,-0.3547937273979187,-0.23646150529384613,0.14920639991760254,0.22212347388267517,0.43803268671035767,0.6508910655975342,0.7253202199935913,0.8360944390296936,0.7516842484474182,0.7074872851371765,0.5871039032936096,0.42025187611579895,0.2016884684562683,-0.08128535002470016,-0.16308370232582092,-0.13363274931907654,-0.16877177357673645,-0.18998540937900543,-0.21572616696357727,-0.2588593363761902,-0.18320059776306152,0.09210208803415298,0.5461092591285706,0.3245125710964203,0.06481951475143433,-0.06816574931144714,-0.09958544373512268,-0.17533734440803528,-0.46287089586257935,-0.34301692247390747,-0.05370303988456726,-0.20598982274532318,0.17433881759643555,0.3934454619884491,0.6173242330551147,0.7819027900695801,0.6685556173324585,0.6602911949157715,0.5847615003585815,0.5009074807167053,0.16841378808021545,-0.014601437374949455,-0.1808546632528305,-0.23379488289356232,-0.13638845086097717,-0.13085845112800598,-0.2819114029407501,-0.24973446130752563,-0.09291445463895798,0.16051432490348816,0.6330045461654663,0.24741558730602264,0.07280617207288742,0.043065231293439865,-0.10589233785867691,-0.35811686515808105,-0.540983259677887,-0.3171171247959137,-0.2968302071094513,-0.27908697724342346,-0.23374496400356293,-0.0973319411277771,0.09191688895225525,0.33852753043174744,0.34058302640914917,0.3710852265357971,0.3151644468307495,0.21151800453662872,0.07862681895494461,-0.09513890743255615,-0.11899148672819138,-0.1525196135044098,-0.15884147584438324,-0.11752621829509735,-0.1817421168088913,-0.053944725543260574,0.031761858612298965,0.30792883038520813,0.5172251462936401,0.2135026603937149,0.008234870620071888,0.07347684353590012,-0.12096314877271652,-0.26327404379844666,-0.5496730208396912,-0.3918251097202301,-0.3074984550476074,-0.19792993366718292,-0.3147399127483368,-0.28459131717681885,-0.2087089866399765,-0.0971912294626236,-0.06217481940984726,-0.01787693053483963,0.05698816105723381,0.1852383017539978,0.07739147543907166,-0.028797047212719917,-0.13016927242279053,-0.2341345101594925,-0.19940908253192902,-0.13659711182117462,-0.0072518023662269115,-0.005103037692606449,0.19760103523731232,0.4118393361568451,0.4278070032596588,0.09588625282049179,0.01168777048587799,0.06908280402421951,-0.17281772196292877,-0.30537688732147217,-0.46334338188171387,-0.2800290882587433,-0.17545360326766968,-0.12480637431144714,-0.1630331575870514,-0.19098994135856628,-0.19819404184818268,-0.16591748595237732,-0.10533234477043152,-0.09059420228004456,-0.003712699981406331,-0.023525739088654518,-0.07285944372415543,-0.14725403487682343,-0.14038364589214325,-0.18374773859977722,-0.08421457558870316,-0.15192854404449463,-0.023606490343809128,0.0482308566570282,0.24206456542015076,0.4609254002571106,0.40293872356414795,0.16897980868816376,0.01296777930110693,0.09474827349185944,0.021831603720784187,-0.20266155898571014,-0.2977451682090759,-0.298568993806839,-0.04318089783191681,-0.005757810547947884,0.001062088180333376,-0.10415440052747726,-0.2124197632074356,-0.16904717683792114,-0.21289122104644775,-0.1740572154521942,-0.051182445138692856,-0.12875843048095703,-0.10231058299541473,-0.1094454824924469,-0.19817155599594116,-0.11648798733949661,-0.10108920931816101,-0.0261375792324543,0.07755153626203537,0.2227783054113388,0.3118043839931488,0.3759366273880005,0.2025812566280365,0.02637426182627678,0.087137870490551,0.07017429918050766,0.03906547278165817,-0.1579812914133072,-0.3459528684616089,-0.3393576741218567,-0.2310730218887329,-0.17697620391845703,-0.13495828211307526,-0.08347030729055405,-0.055733464658260345,-0.20363494753837585,-0.0710354670882225,-0.10976505279541016,-0.04001368582248688,-0.0728430449962616,-0.03585520014166832,-0.05942568928003311,-0.08218341320753098,-0.13183781504631042,-0.02940971776843071,0.07059966772794724,0.15633916854858398,0.25069916248321533,0.2732318639755249,0.01752009056508541,0.09639005362987518,0.024774251505732536,0.00893273577094078,0.04532486945390701,-0.03548711538314819,-0.11786215007305145,-0.2779883146286011,-0.3166166841983795,-0.4380353093147278,-0.43169867992401123,-0.36014679074287415,-0.32589972019195557,-0.39283815026283264,-0.31285417079925537,-0.2653281092643738,-0.2675466239452362,-0.09277977794408798,-0.03686252608895302,-0.0626748576760292,0.027114933356642723,0.08711258322000504,0.1303650438785553,0.15258441865444183,0.2683030366897583,0.2721969783306122,0.13330034911632538,0.16532234847545624,0.02032475173473358,0.04666156694293022,0.06263353675603867,-0.03826064243912697,-0.018790312111377716,-0.026527728885412216,-0.03542651981115341,-0.1754506379365921,-0.12765352427959442,-0.08744725584983826,-0.27006417512893677,-0.37423592805862427,-0.4293821156024933,-0.35607007145881653,-0.26419857144355774,-0.25224342942237854,-0.2472660392522812,-0.13725434243679047,-0.04877346009016037,0.048211097717285156,0.25495386123657227,0.2440282106399536,0.34543290734291077,0.2635778486728668,0.3329140841960907,0.14743363857269287,0.007116903085261583,-0.08493674546480179,-0.10952796041965485,0.008202590979635715,-0.03492093086242676,0.04700375348329544,-0.07081964612007141,0.04135621711611748,-0.008645668625831604,-0.013124726712703705,0.11222809553146362,-0.014454157091677189,-0.21067582070827484,-0.32173436880111694,-0.20723940432071686,-0.11383643001317978,-0.01852607913315296,0.022389743477106094,0.1876927614212036,0.2852242588996887,0.24539047479629517,0.20305079221725464,0.26222115755081177,0.3940861225128174,0.2925792336463928,0.12960973381996155,0.12394250184297562,0.02493148483335972,-0.00482020853087306,-0.050301507115364075,0.06362510472536087,-0.06399764865636826,0.03643528372049332,0.07687989622354507,-0.02105897292494774,-0.05006340891122818,-0.05347283557057381,0.030808255076408386,-0.07657412439584732,-0.09581384062767029,-0.15952938795089722,-0.17321543395519257,-0.08695734292268753,0.01711055263876915,-0.09618354588747025,-0.020312892273068428,-0.052973490208387375,0.03196491301059723,0.16277967393398285,0.10416387766599655,0.19216714799404144,-0.008490638807415962,0.010620026849210262,-0.019031837582588196,-0.016548724845051765,0.011543607339262962,-0.02179800532758236,0.09855838119983673,0.06688051670789719,-0.03462044149637222,-0.06472170352935791,-0.002211563289165497,-0.15348529815673828
